<?xml version="1.0"?>
<opencv_storage>
<cascade>
  <stageType>BOOST</stageType>
  <featureType>LBP</featureType>
  <height>40</height>
  <width>40</width>
  <stageParams>
    <boostType>GAB</boostType>
    <minHitRate>9.9900001287460327e-01</minHitRate>
    <maxFalseAlarm>5.0000000000000000e-01</maxFalseAlarm>
    <weightTrimRate>9.4999999999999996e-01</weightTrimRate>
    <maxDepth>1</maxDepth>
    <maxWeakCount>100</maxWeakCount></stageParams>
  <featureParams>
    <maxCatCount>256</maxCatCount>
    <featSize>1</featSize></featureParams>
  <stageNum>15</stageNum>
  <stages>
    <!-- stage 0 -->
    <_>
      <maxWeakCount>3</maxWeakCount>
      <stageThreshold>-1.2425200939178467e+00</stageThreshold>
      <weakClassifiers>
        <_>
          <internalNodes>
            0 -1 27 -1 -111805449 -582221825 -1124385 -1065025537
            -804194927 -262145 -1</internalNodes>
          <leafValues>
            -8.9073365926742554e-01 8.2899063825607300e-01</leafValues></_>
        <_>
          <internalNodes>
            0 -1 29 -513 1429274366 -42737665 -2172194 1291845631
            135364831 -71566337 -1048593</internalNodes>
          <leafValues>
            -8.6162567138671875e-01 6.5205651521682739e-01</leafValues></_>
        <_>
          <internalNodes>
            0 -1 68 -587407361 1054669820 -194194179 1052049404
            -587412225 -55781144 -54727426 -1114046728</internalNodes>
          <leafValues>
            -8.9527225494384766e-01 5.0983923673629761e-01</leafValues></_></weakClassifiers></_>
    <!-- stage 1 -->
    <_>
      <maxWeakCount>4</maxWeakCount>
      <stageThreshold>-1.9200505018234253e+00</stageThreshold>
      <weakClassifiers>
        <_>
          <internalNodes>
            0 -1 19 -1 -18351105 -668239361 -1050625 -1059782657
            -45818155 -543358977 -1025</internalNodes>
          <leafValues>
            -8.4565824270248413e-01 7.8704661130905151e-01</leafValues></_>
        <_>
          <internalNodes>
            0 -1 30 -2097153 -180030473 -2099713 -18161921 -935527457
            1279562001 -88604673 -2</internalNodes>
          <leafValues>
            -8.5776281356811523e-01 5.5967509746551514e-01</leafValues></_>
        <_>
          <internalNodes>
            0 -1 64 -2097153 134282924 -55576398 2133455008 -3146753
            -1813 -538968069 -5243713</internalNodes>
          <leafValues>
            -7.7490675449371338e-01 5.4492723941802979e-01</leafValues></_>
        <_>
          <internalNodes>
            0 -1 74 2013221887 1256129727 354353371 2147366815
            -1685603329 521865439 2075376638 -65538</internalNodes>
          <leafValues>
            -7.2259300947189331e-01 5.5827730894088745e-01</leafValues></_></weakClassifiers></_>
    <!-- stage 2 -->
    <_>
      <maxWeakCount>5</maxWeakCount>
      <stageThreshold>-1.2468764781951904e+00</stageThreshold>
      <weakClassifiers>
        <_>
          <internalNodes>
            0 -1 14 -2049 -538968065 -543171619 -1051649 -857162753
            -599461403 -17826341 -1025</internalNodes>
          <leafValues>
            -7.9755103588104248e-01 7.8410959243774414e-01</leafValues></_>
        <_>
          <internalNodes>
            0 -1 20 -2099201 -1378878497 333004911 -268445765 1181041868
            -272688501 1588026367 -268436481</internalNodes>
          <leafValues>
            -7.7243626117706299e-01 6.3738864660263062e-01</leafValues></_>
        <_>
          <internalNodes>
            0 -1 69 -1 -275844498 -42770722 -5376934 -137364481
            -1382045769 -788529926 -637545221</internalNodes>
          <leafValues>
            -6.8208652734756470e-01 6.6508084535598755e-01</leafValues></_>
        <_>
          <internalNodes>
            0 -1 33 -67110921 387117839 1763202262 -207823202 -606078197
            1826587 -13125126 -541065730</internalNodes>
          <leafValues>
            -8.2120102643966675e-01 5.1199609041213989e-01</leafValues></_>
        <_>
          <internalNodes>
            0 -1 79 -67109889 -523370337 855864319 2130588662 837811647
            61473519 1675320304 -67724</internalNodes>
          <leafValues>
            -7.8039383888244629e-01 4.9320122599601746e-01</leafValues></_></weakClassifiers></_>
    <!-- stage 3 -->
    <_>
      <maxWeakCount>6</maxWeakCount>
      <stageThreshold>-1.7570353746414185e+00</stageThreshold>
      <weakClassifiers>
        <_>
          <internalNodes>
            0 -1 21 -1 -1846273 -784345689 -10793 -53149697 -3014667
            -1081365829 -1025</internalNodes>
          <leafValues>
            -7.4797505140304565e-01 7.5900834798812866e-01</leafValues></_>
        <_>
          <internalNodes>
            0 -1 56 2087784688 -117886725 -581861167 -53063277 -93738246
            -69213697 -1610372454 -3845</internalNodes>
          <leafValues>
            -7.5065696239471436e-01 5.3341811895370483e-01</leafValues></_>
        <_>
          <internalNodes>
            0 -1 37 -48641 2029983089 -818999425 532633535 -291089
            -1360112555 -821039153 -284211961</internalNodes>
          <leafValues>
            -5.7784616947174072e-01 7.0559054613113403e-01</leafValues></_>
        <_>
          <internalNodes>
            0 -1 81 -137955329 -136911114 -547750702 -572733220
            -652477457 -793922587 -238289446 -572532517</internalNodes>
          <leafValues>
            -6.3950115442276001e-01 6.3986212015151978e-01</leafValues></_>
        <_>
          <internalNodes>
            0 -1 17 -1 -84166185 -263122113 -1160981673 -186581505
            -167709953 -124720485 -18810113</internalNodes>
          <leafValues>
            -7.6021307706832886e-01 4.6780699491500854e-01</leafValues></_>
        <_>
          <internalNodes>
            0 -1 45 -663731982 194519798 6835919 264207839 -840040245
            1207632047 -5519621 -34817</internalNodes>
          <leafValues>
            -7.5106912851333618e-01 4.9113696813583374e-01</leafValues></_></weakClassifiers></_>
    <!-- stage 4 -->
    <_>
      <maxWeakCount>6</maxWeakCount>
      <stageThreshold>-1.8803356885910034e+00</stageThreshold>
      <weakClassifiers>
        <_>
          <internalNodes>
            0 -1 83 -71305729 -2188290 -615550017 -337668 -1014784001
            -375675989 -1778386689 -538979845</internalNodes>
          <leafValues>
            -7.5777369737625122e-01 5.9059894084930420e-01</leafValues></_>
        <_>
          <internalNodes>
            0 -1 58 -2623489 -673909504 -1311649293 -246294271 -24444945
            -25114373 -611587585 403820565</internalNodes>
          <leafValues>
            -7.3814433813095093e-01 5.2402514219284058e-01</leafValues></_>
        <_>
          <internalNodes>
            0 -1 23 -136846593 -274015233 -1811857297 -336627749
            1079264460 1946112431 1526415807 -11777</internalNodes>
          <leafValues>
            -7.1826958656311035e-01 5.3027224540710449e-01</leafValues></_>
        <_>
          <internalNodes>
            0 -1 7 -11730957 1737081330 -922094240 265678833 -876216325
            -811910193 -879009977 -998419597</internalNodes>
          <leafValues>
            -7.5491207838058472e-01 4.4845890998840332e-01</leafValues></_>
        <_>
          <internalNodes>
            0 -1 59 -755827745 -7809800 1645564027 -1316694 -1878883633
            -21030897 -817823621 -1879195907</internalNodes>
          <leafValues>
            -6.2315809726715088e-01 5.7777357101440430e-01</leafValues></_>
        <_>
          <internalNodes>
            0 -1 67 -1073691409 1381366739 1217970841 -573809189
            717264587 -11757685 -91690337 -28639745</internalNodes>
          <leafValues>
            -6.8425923585891724e-01 5.1099044084548950e-01</leafValues></_></weakClassifiers></_>
    <!-- stage 5 -->
    <_>
      <maxWeakCount>6</maxWeakCount>
      <stageThreshold>-1.9704904556274414e+00</stageThreshold>
      <weakClassifiers>
        <_>
          <internalNodes>
            0 -1 24 -571342913 -168476649 -620235951 -708733229
            -654081361 -1412759551 -796793946 -707268677</internalNodes>
          <leafValues>
            -7.5776755809783936e-01 5.6027668714523315e-01</leafValues></_>
        <_>
          <internalNodes>
            0 -1 75 1442795741 1576992985 286457927 2147374071 457178043
            1220225039 2134111226 -68678</internalNodes>
          <leafValues>
            -7.7293807268142700e-01 4.7576093673706055e-01</leafValues></_>
        <_>
          <internalNodes>
            0 -1 44 586877695 457122555 65648 467663603 32375434
            -1937102654 63671871 -536875013</internalNodes>
          <leafValues>
            -7.2297376394271851e-01 4.8354458808898926e-01</leafValues></_>
        <_>
          <internalNodes>
            0 -1 71 -2621445 705492464 -746497445 -1088687964 -762597025
            -75503109 -650520354 -4208141</internalNodes>
          <leafValues>
            -6.6464436054229736e-01 5.1487112045288086e-01</leafValues></_>
        <_>
          <internalNodes>
            0 -1 25 -109078533 -50944633 -104511357 -152152717
            -792402245 -179027095 -1197178745 -18167566</internalNodes>
          <leafValues>
            -8.0266278982162476e-01 4.4969397783279419e-01</leafValues></_>
        <_>
          <internalNodes>
            0 -1 66 -101654529 -170797589 1502052223 1432081879
            -41879329 -121642821 -1039470673 -1744826112</internalNodes>
          <leafValues>
            -6.7771840095520020e-01 5.0877839326858521e-01</leafValues></_></weakClassifiers></_>
    <!-- stage 6 -->
    <_>
      <maxWeakCount>7</maxWeakCount>
      <stageThreshold>-2.3526182174682617e+00</stageThreshold>
      <weakClassifiers>
        <_>
          <internalNodes>
            0 -1 6 -717225985 -177221147 -1157236804 -4719649 -679232519
            -125130582 -675807280 -5121</internalNodes>
          <leafValues>
            -7.3324024677276611e-01 5.8593750000000000e-01</leafValues></_>
        <_>
          <internalNodes>
            0 -1 80 -137365505 -143494150 1395899540 -704675634
            -515942001 -1047919869 -670582569 -585123329</internalNodes>
          <leafValues>
            -6.5017241239547729e-01 6.0308116674423218e-01</leafValues></_>
        <_>
          <internalNodes>
            0 -1 35 1938899687 194835359 163599901 -8389233 195167422
            -269536613 526326779 -1105</internalNodes>
          <leafValues>
            -6.4636534452438354e-01 5.8637052774429321e-01</leafValues></_>
        <_>
          <internalNodes>
            0 -1 70 -147587074 -4197929 -25103624 1456397151 -326909989
            -592977387 134924474 -658865926</internalNodes>
          <leafValues>
            -7.1652698516845703e-01 4.8551860451698303e-01</leafValues></_>
        <_>
          <internalNodes>
            0 -1 50 1347689616 -1688350223 -1870917159 -181324839
            -522147836 -1414954605 -1608467764 -324961330</internalNodes>
          <leafValues>
            -6.7735153436660767e-01 4.8969990015029907e-01</leafValues></_>
        <_>
          <internalNodes>
            0 -1 38 -824770563 -1451213614 2000771643 -1918824251
            11579639 1328554931 -886531893 -268443461</internalNodes>
          <leafValues>
            -7.4169826507568359e-01 4.2743423581123352e-01</leafValues></_>
        <_>
          <internalNodes>
            0 -1 34 -1169704193 -1082213761 41373427 -570459393
            134515654 -1969250602 487054247 -603979905</internalNodes>
          <leafValues>
            -5.5844175815582275e-01 6.1929196119308472e-01</leafValues></_></weakClassifiers></_>
    <!-- stage 7 -->
    <_>
      <maxWeakCount>6</maxWeakCount>
      <stageThreshold>-1.9604858160018921e+00</stageThreshold>
      <weakClassifiers>
        <_>
          <internalNodes>
            0 -1 5 -67372065 -509093412 1368612092 -169878628 -608183363
            -607409942 -72617140 -1062</internalNodes>
          <leafValues>
            -7.3376530408859253e-01 5.6626504659652710e-01</leafValues></_>
        <_>
          <internalNodes>
            0 -1 90 -1384185857 -2173666 421520351 -46214500 -778855457
            -771522157 1369413117 -14852</internalNodes>
          <leafValues>
            -7.2685647010803223e-01 5.1554393768310547e-01</leafValues></_>
        <_>
          <internalNodes>
            0 -1 41 -112984073 -993568 1073988185 -33566245 -1727282025
            -5979215 -938573173 -1932021529</internalNodes>
          <leafValues>
            -6.3726544380187988e-01 5.6371635198593140e-01</leafValues></_>
        <_>
          <internalNodes>
            0 -1 89 -134744065 -279576364 1367465428 1608258648
            -1696927033 732660338 722203368 1476191988</internalNodes>
          <leafValues>
            -7.7077805995941162e-01 4.4391185045242310e-01</leafValues></_>
        <_>
          <internalNodes>
            0 -1 55 -106940944 1597629919 496047511 513093699
            -1144475938 496732193 843251115 -1617194325</internalNodes>
          <leafValues>
            -6.5595763921737671e-01 5.0187510251998901e-01</leafValues></_>
        <_>
          <internalNodes>
            0 -1 18 -270799617 730051022 20137098 1246752356 -645146096
            226574370 1778942448 1596717380</internalNodes>
          <leafValues>
            -8.0838561058044434e-01 3.7923797965049744e-01</leafValues></_></weakClassifiers></_>
    <!-- stage 8 -->
    <_>
      <maxWeakCount>6</maxWeakCount>
      <stageThreshold>-1.6411974430084229e+00</stageThreshold>
      <weakClassifiers>
        <_>
          <internalNodes>
            0 -1 52 -128495531 -119582381 1058084349 -75514049 -99640613
            -78958161 -343220433 -3157221</internalNodes>
          <leafValues>
            -7.2371017932891846e-01 5.4633897542953491e-01</leafValues></_>
        <_>
          <internalNodes>
            0 -1 4 -33554433 -745537596 -152043642 -268306560 -83886081
            -1209012870 -218431810 -10490353</internalNodes>
          <leafValues>
            -5.5504649877548218e-01 6.4339947700500488e-01</leafValues></_>
        <_>
          <internalNodes>
            0 -1 82 -680528929 -808693334 -543793962 -673195810
            -798376965 1158269679 1078851775 1440735451</internalNodes>
          <leafValues>
            -6.0378497838973999e-01 5.3962355852127075e-01</leafValues></_>
        <_>
          <internalNodes>
            0 -1 36 -227327785 215438335 16892427 132086527 -67566381
            -1433451781 1578830491 -64529</internalNodes>
          <leafValues>
            -6.9295960664749146e-01 4.6956831216812134e-01</leafValues></_>
        <_>
          <internalNodes>
            0 -1 54 2010881011 -1088872041 289480722 477298961 273490203
            990708230 17382299 2147367934</internalNodes>
          <leafValues>
            -7.6542603969573975e-01 4.3470841646194458e-01</leafValues></_>
        <_>
          <internalNodes>
            0 -1 2 -709580064 -2264302 536904452 -1085332855 -72768535
            -73299576 -1952900342 -99636278</internalNodes>
          <leafValues>
            -5.9319466352462769e-01 5.3720200061798096e-01</leafValues></_></weakClassifiers></_>
    <!-- stage 9 -->
    <_>
      <maxWeakCount>7</maxWeakCount>
      <stageThreshold>-2.4224293231964111e+00</stageThreshold>
      <weakClassifiers>
        <_>
          <internalNodes>
            0 -1 87 -136315905 -8482337 -41040454 -536956744 -1164190817
            -242245221 -1854147077 -2561</internalNodes>
          <leafValues>
            -7.4049800634384155e-01 5.0447618961334229e-01</leafValues></_>
        <_>
          <internalNodes>
            0 -1 9 -201328641 -738725031 -619850542 -267660833 -78926849
            -80770940 -739247376 -780665089</internalNodes>
          <leafValues>
            -6.2580746412277222e-01 5.0311708450317383e-01</leafValues></_>
        <_>
          <internalNodes>
            0 -1 68 -100797953 1069339480 -1677083681 1067239096
            -1003966277 -125263766 -125241190 -1131357540</internalNodes>
          <leafValues>
            -7.5799971818923950e-01 4.1077265143394470e-01</leafValues></_>
        <_>
          <internalNodes>
            0 -1 51 474535417 295359479 1369999383 -273944301 1333627839
            -628118609 -70270837 -269485365</internalNodes>
          <leafValues>
            -6.1869949102401733e-01 5.3093379735946655e-01</leafValues></_>
        <_>
          <internalNodes>
            0 -1 42 -13379589 1896053398 134219042 -782798511 -234173566
            674373704 1360065692 -151324162</internalNodes>
          <leafValues>
            -5.7010829448699951e-01 5.5989301204681396e-01</leafValues></_>
        <_>
          <internalNodes>
            0 -1 65 532229115 2128417243 352327742 1557580431
            -1693348837 -783806328 -160382821 -33665949</internalNodes>
          <leafValues>
            -7.4222737550735474e-01 4.1433864831924438e-01</leafValues></_>
        <_>
          <internalNodes>
            0 -1 39 -1513233409 395538975 18546832 1440217544 78610986
            42598528 69673907 1341884923</internalNodes>
          <leafValues>
            -6.8473654985427856e-01 4.6413862705230713e-01</leafValues></_></weakClassifiers></_>
    <!-- stage 10 -->
    <_>
      <maxWeakCount>6</maxWeakCount>
      <stageThreshold>-1.6451756954193115e+00</stageThreshold>
      <weakClassifiers>
        <_>
          <internalNodes>
            0 -1 31 -573179937 -107149901 -777926889 -707432185
            -650794057 -270040949 -1064177453 -774769777</internalNodes>
          <leafValues>
            -7.8429186344146729e-01 4.0715646743774414e-01</leafValues></_>
        <_>
          <internalNodes>
            0 -1 73 -80481345 -583847934 269724315 2144737923
            -1742631949 1000571010 1065597883 -199704</internalNodes>
          <leafValues>
            -6.0856282711029053e-01 5.4541110992431641e-01</leafValues></_>
        <_>
          <internalNodes>
            0 -1 78 -134218785 -1967497222 -883306274 -1081467736
            -997616661 -618790759 -794865414 -11022</internalNodes>
          <leafValues>
            -7.4435490369796753e-01 4.3354603648185730e-01</leafValues></_>
        <_>
          <internalNodes>
            0 -1 8 -36176897 -963800191 1628697433 -20057128 -895896679
            1830518920 269392888 -606080004</internalNodes>
          <leafValues>
            -5.8562529087066650e-01 5.2625888586044312e-01</leafValues></_>
        <_>
          <internalNodes>
            0 -1 63 -606078465 -61816679 -635857993 -61771293
            -1719087173 -290602992 -526781219 -1206816080</internalNodes>
          <leafValues>
            -6.3428980112075806e-01 5.1648896932601929e-01</leafValues></_>
        <_>
          <internalNodes>
            0 -1 61 -1789141249 -680463120 134252697 -717754127
            -1576959713 -620757985 -2146502181 -1884312093</internalNodes>
          <leafValues>
            -5.4882621765136719e-01 5.5797511339187622e-01</leafValues></_></weakClassifiers></_>
    <!-- stage 11 -->
    <_>
      <maxWeakCount>7</maxWeakCount>
      <stageThreshold>-1.4628175497055054e+00</stageThreshold>
      <weakClassifiers>
        <_>
          <internalNodes>
            0 -1 32 -11210285 -9981037 -651886075 -3147335 -724239435
            -6832461 -203808501 -20049</internalNodes>
          <leafValues>
            -7.4798446893692017e-01 4.6722453832626343e-01</leafValues></_>
        <_>
          <internalNodes>
            0 -1 12 -85988385 -808200741 -788399627 -137435300
            -894174279 -900494686 1965816804 -675939332</internalNodes>
          <leafValues>
            -6.6061025857925415e-01 4.4224220514297485e-01</leafValues></_>
        <_>
          <internalNodes>
            0 -1 57 -11583489 -386525968 1350790911 1091918928
            -117117185 -1465980789 1700138607 1732713311</internalNodes>
          <leafValues>
            -7.8892695903778076e-01 3.6167332530021667e-01</leafValues></_>
        <_>
          <internalNodes>
            0 -1 88 -245893633 -811409280 1416744988 1440628888
            -1329405537 696952962 1355021232 1566372324</internalNodes>
          <leafValues>
            -7.5828140974044800e-01 4.0404438972473145e-01</leafValues></_>
        <_>
          <internalNodes>
            0 -1 72 -1048577 -545456130 -50332545 -664432 -536870929
            -1048577 -2000749323 -1612731137</internalNodes>
          <leafValues>
            -5.2339535951614380e-01 5.8087027072906494e-01</leafValues></_>
        <_>
          <internalNodes>
            0 -1 22 1498349903 -178813593 286311574 -29190987
            -1735806117 1275368467 1610619147 -1054325</internalNodes>
          <leafValues>
            -7.3213994503021240e-01 4.4652056694030762e-01</leafValues></_>
        <_>
          <internalNodes>
            0 -1 0 -1843911000 -1088608225 -2080370348 -79099847
            -1349936453 -888602593 -822015061 -1110602865</internalNodes>
          <leafValues>
            -5.8772706985473633e-01 5.4140269756317139e-01</leafValues></_></weakClassifiers></_>
    <!-- stage 12 -->
    <_>
      <maxWeakCount>8</maxWeakCount>
      <stageThreshold>-1.9789377450942993e+00</stageThreshold>
      <weakClassifiers>
        <_>
          <internalNodes>
            0 -1 11 -211299007 -67923837 286355923 -36202027 -10358207
            -552108015 -1412791845 -6319669</internalNodes>
          <leafValues>
            -6.6844493150711060e-01 5.7452881336212158e-01</leafValues></_>
        <_>
          <internalNodes>
            0 -1 86 -537395777 -419630830 -1794903566 2011076656
            -24397889 93980810 1636422135 2012805876</internalNodes>
          <leafValues>
            -7.7835172414779663e-01 3.8580241799354553e-01</leafValues></_>
        <_>
          <internalNodes>
            0 -1 47 -1241479496 1574801625 17760276 1541342301 705212094
            165218490 955752383 -8393957</internalNodes>
          <leafValues>
            -6.6326719522476196e-01 4.5482125878334045e-01</leafValues></_>
        <_>
          <internalNodes>
            0 -1 16 -267191817 -43732063 -777877104 -162400255
            -1416979541 -91051889 -351540473 -368922171</internalNodes>
          <leafValues>
            -6.8360269069671631e-01 4.5493826270103455e-01</leafValues></_>
        <_>
          <internalNodes>
            0 -1 53 1585317183 -1281794306 85525247 360661578 1973029851
            -1147717968 121309691 -1076894821</internalNodes>
          <leafValues>
            -5.8788144588470459e-01 5.3707903623580933e-01</leafValues></_>
        <_>
          <internalNodes>
            0 -1 84 -95945729 69531068 857845055 -1081286472 -129257286
            -2138404734 1529807344 -545548064</internalNodes>
          <leafValues>
            -7.1268379688262939e-01 4.0293586254119873e-01</leafValues></_>
        <_>
          <internalNodes>
            0 -1 15 -608571137 -1019051839 1880299897 1343867074
            -1458980248 -1958034808 -992225004 1421339646</internalNodes>
          <leafValues>
            -6.4655995368957520e-01 4.8454907536506653e-01</leafValues></_>
        <_>
          <internalNodes>
            0 -1 1 -1895250726 788832288 76678365 -817692278 1609110973
            -1182676560 -1693217861 -806286345</internalNodes>
          <leafValues>
            -6.0663020610809326e-01 4.9220398068428040e-01</leafValues></_></weakClassifiers></_>
    <!-- stage 13 -->
    <_>
      <maxWeakCount>8</maxWeakCount>
      <stageThreshold>-1.7206063270568848e+00</stageThreshold>
      <weakClassifiers>
        <_>
          <internalNodes>
            0 -1 49 -772735489 -608123518 1347421407 -3033696
            -1182627585 -307360722 -1061844833 -637678933</internalNodes>
          <leafValues>
            -6.6781002283096313e-01 6.0292398929595947e-01</leafValues></_>
        <_>
          <internalNodes>
            0 -1 10 -2049 -537002385 -219152400 1895159807 -289
            -1169866745 -286060560 -214442497</internalNodes>
          <leafValues>
            -5.4167455434799194e-01 6.0984784364700317e-01</leafValues></_>
        <_>
          <internalNodes>
            0 -1 60 -503581769 1309470958 1615925401 -81588062
            1107525807 -73678165 -1474197025 -1879062277</internalNodes>
          <leafValues>
            -6.3931429386138916e-01 4.9411472678184509e-01</leafValues></_>
        <_>
          <internalNodes>
            0 -1 3 -1425348610 -2077748992 658506224 -1345924692
            680114427 -874348298 -1851532565 -1883128138</internalNodes>
          <leafValues>
            -6.6231065988540649e-01 4.5207256078720093e-01</leafValues></_>
        <_>
          <internalNodes>
            0 -1 28 172159775 -1546022629 671121488 -518835829
            1899287066 -368836469 -246116101 -13960529</internalNodes>
          <leafValues>
            -5.3287947177886963e-01 5.7594573497772217e-01</leafValues></_>
        <_>
          <internalNodes>
            0 -1 76 359862431 1195577361 17891651 -138488047 503349659
            254484499 -183899382 -2172106</internalNodes>
          <leafValues>
            -6.7166852951049805e-01 4.3780559301376343e-01</leafValues></_>
        <_>
          <internalNodes>
            0 -1 26 -242251553 -1303003008 -2146893730 1372969362
            -1035888118 93028480 538165696 1610602996</internalNodes>
          <leafValues>
            -6.5834319591522217e-01 4.6822544932365417e-01</leafValues></_>
        <_>
          <internalNodes>
            0 -1 46 51002101 62478274 -1744662437 32576533 11688607
            233621659 -248604469 -72725863</internalNodes>
          <leafValues>
            -6.9147348403930664e-01 4.1941809654235840e-01</leafValues></_></weakClassifiers></_>
    <!-- stage 14 -->
    <_>
      <maxWeakCount>8</maxWeakCount>
      <stageThreshold>-1.4745807647705078e+00</stageThreshold>
      <weakClassifiers>
        <_>
          <internalNodes>
            0 -1 62 822179807 1903654735 285823471 -41946849 -610014529
            -645685208 293855370 -11317</internalNodes>
          <leafValues>
            -7.0309627056121826e-01 5.0241917371749878e-01</leafValues></_>
        <_>
          <internalNodes>
            0 -1 85 -75237410 1104389402 303155396 -1074570725
            -1784180726 -1474580478 -1719625598 -812648313</internalNodes>
          <leafValues>
            -6.5989363193511963e-01 4.4799309968948364e-01</leafValues></_>
        <_>
          <internalNodes>
            0 -1 77 -35848225 -137228008 -2130674734 -736774884
            -207882309 -116750304 -281494850 -636958470</internalNodes>
          <leafValues>
            -6.4025384187698364e-01 4.5473113656044006e-01</leafValues></_>
        <_>
          <internalNodes>
            0 -1 43 -536870913 469699039 112168457 494870013 -1758492030
            524158984 122654223 -538996769</internalNodes>
          <leafValues>
            -4.7679471969604492e-01 6.4822316169738770e-01</leafValues></_>
        <_>
          <internalNodes>
            0 -1 48 -553760645 -546155024 986467935 -638647032
            -827395430 -1092126828 805296063 -620812533</internalNodes>
          <leafValues>
            -4.9971288442611694e-01 6.2215799093246460e-01</leafValues></_>
        <_>
          <internalNodes>
            0 -1 13 -205261857 -1052584100 605618619 1404400060
            -158619336 -1984135168 -503256644 1598806572</internalNodes>
          <leafValues>
            -6.6711032390594482e-01 4.5834612846374512e-01</leafValues></_>
        <_>
          <internalNodes>
            0 -1 91 -719848961 -259731194 1365787344 1687935070
            1245444213 -1445494781 1079239960 788130537</internalNodes>
          <leafValues>
            -5.9661525487899780e-01 5.0662952661514282e-01</leafValues></_>
        <_>
          <internalNodes>
            0 -1 40 604427159 -1235537838 85007 1159037077 -1157318224
            -1427073024 -1121916173 -1654932981</internalNodes>
          <leafValues>
            -5.1487386226654053e-01 5.7066637277603149e-01</leafValues></_></weakClassifiers></_></stages>
  <features>
    <_>
      <rect>
        0 0 13 6</rect></_>
    <_>
      <rect>
        1 0 7 5</rect></_>
    <_>
      <rect>
        1 1 13 9</rect></_>
    <_>
      <rect>
        1 3 6 4</rect></_>
    <_>
      <rect>
        4 13 3 6</rect></_>
    <_>
      <rect>
        5 12 3 4</rect></_>
    <_>
      <rect>
        5 19 3 2</rect></_>
    <_>
      <rect>
        6 8 5 5</rect></_>
    <_>
      <rect>
        6 16 2 3</rect></_>
    <_>
      <rect>
        6 22 3 2</rect></_>
    <_>
      <rect>
        6 22 3 3</rect></_>
    <_>
      <rect>
        7 14 11 4</rect></_>
    <_>
      <rect>
        7 17 2 3</rect></_>
    <_>
      <rect>
        8 13 2 3</rect></_>
    <_>
      <rect>
        8 16 7 5</rect></_>
    <_>
      <rect>
        8 18 2 2</rect></_>
    <_>
      <rect>
        9 4 5 10</rect></_>
    <_>
      <rect>
        9 10 6 8</rect></_>
    <_>
      <rect>
        9 14 2 3</rect></_>
    <_>
      <rect>
        9 14 6 6</rect></_>
    <_>
      <rect>
        9 15 5 4</rect></_>
    <_>
      <rect>
        9 15 6 6</rect></_>
    <_>
      <rect>
        9 16 8 4</rect></_>
    <_>
      <rect>
        9 17 5 4</rect></_>
    <_>
      <rect>
        10 1 7 11</rect></_>
    <_>
      <rect>
        10 12 6 7</rect></_>
    <_>
      <rect>
        10 13 2 3</rect></_>
    <_>
      <rect>
        10 14 6 6</rect></_>
    <_>
      <rect>
        10 15 3 5</rect></_>
    <_>
      <rect>
        10 15 7 4</rect></_>
    <_>
      <rect>
        10 15 7 5</rect></_>
    <_>
      <rect>
        11 2 7 11</rect></_>
    <_>
      <rect>
        11 14 5 6</rect></_>
    <_>
      <rect>
        11 14 7 4</rect></_>
    <_>
      <rect>
        11 16 3 2</rect></_>
    <_>
      <rect>
        11 16 4 4</rect></_>
    <_>
      <rect>
        11 17 4 3</rect></_>
    <_>
      <rect>
        11 18 4 2</rect></_>
    <_>
      <rect>
        11 21 5 2</rect></_>
    <_>
      <rect>
        12 13 2 4</rect></_>
    <_>
      <rect>
        12 17 3 2</rect></_>
    <_>
      <rect>
        12 21 5 4</rect></_>
    <_>
      <rect>
        13 11 2 7</rect></_>
    <_>
      <rect>
        13 12 2 4</rect></_>
    <_>
      <rect>
        13 14 2 4</rect></_>
    <_>
      <rect>
        13 17 3 4</rect></_>
    <_>
      <rect>
        13 21 4 2</rect></_>
    <_>
      <rect>
        14 16 2 2</rect></_>
    <_>
      <rect>
        14 18 2 2</rect></_>
    <_>
      <rect>
        14 18 3 1</rect></_>
    <_>
      <rect>
        15 2 7 5</rect></_>
    <_>
      <rect>
        15 15 3 5</rect></_>
    <_>
      <rect>
        15 16 4 2</rect></_>
    <_>
      <rect>
        15 20 2 2</rect></_>
    <_>
      <rect>
        16 11 2 4</rect></_>
    <_>
      <rect>
        16 16 2 2</rect></_>
    <_>
      <rect>
        16 17 3 2</rect></_>
    <_>
      <rect>
        16 18 2 2</rect></_>
    <_>
      <rect>
        16 19 2 1</rect></_>
    <_>
      <rect>
        16 19 4 4</rect></_>
    <_>
      <rect>
        16 21 4 3</rect></_>
    <_>
      <rect>
        16 21 4 4</rect></_>
    <_>
      <rect>
        17 16 2 3</rect></_>
    <_>
      <rect>
        17 19 2 1</rect></_>
    <_>
      <rect>
        17 21 4 2</rect></_>
    <_>
      <rect>
        18 13 2 5</rect></_>
    <_>
      <rect>
        18 19 1 1</rect></_>
    <_>
      <rect>
        19 17 1 2</rect></_>
    <_>
      <rect>
        19 18 1 1</rect></_>
    <_>
      <rect>
        19 18 4 3</rect></_>
    <_>
      <rect>
        19 19 2 1</rect></_>
    <_>
      <rect>
        19 21 3 2</rect></_>
    <_>
      <rect>
        19 22 3 3</rect></_>
    <_>
      <rect>
        20 12 2 3</rect></_>
    <_>
      <rect>
        20 13 2 4</rect></_>
    <_>
      <rect>
        20 15 2 3</rect></_>
    <_>
      <rect>
        20 16 2 3</rect></_>
    <_>
      <rect>
        20 19 1 1</rect></_>
    <_>
      <rect>
        21 20 3 2</rect></_>
    <_>
      <rect>
        22 14 2 3</rect></_>
    <_>
      <rect>
        22 16 4 5</rect></_>
    <_>
      <rect>
        22 17 3 4</rect></_>
    <_>
      <rect>
        22 17 4 3</rect></_>
    <_>
      <rect>
        22 20 3 3</rect></_>
    <_>
      <rect>
        22 21 2 2</rect></_>
    <_>
      <rect>
        23 14 5 6</rect></_>
    <_>
      <rect>
        23 16 3 2</rect></_>
    <_>
      <rect>
        23 20 3 2</rect></_>
    <_>
      <rect>
        24 12 2 3</rect></_>
    <_>
      <rect>
        24 13 2 3</rect></_>
    <_>
      <rect>
        24 17 2 3</rect></_>
    <_>
      <rect>
        26 13 3 3</rect></_></features></cascade>
</opencv_storage>
