<?xml version="1.0"?>
<opencv_storage>
<stage9>
  <maxWeakCount>7</maxWeakCount>
  <stageThreshold>-2.4224293231964111e+00</stageThreshold>
  <weakClassifiers>
    <_>
      <internalNodes>
        0 -1 56898 -136315905 -8482337 -41040454 -536956744 -1164190817
        -242245221 -1854147077 -2561</internalNodes>
      <leafValues>
        -7.4049800634384155e-01 5.0447618961334229e-01</leafValues></_>
    <_>
      <internalNodes>
        0 -1 21292 -201328641 -738725031 -619850542 -267660833 -78926849
        -80770940 -739247376 -780665089</internalNodes>
      <leafValues>
        -6.2580746412277222e-01 5.0311708450317383e-01</leafValues></_>
    <_>
      <internalNodes>
        0 -1 50681 -100797953 1069339480 -1677083681 1067239096
        -1003966277 -125263766 -125241190 -1131357540</internalNodes>
      <leafValues>
        -7.5799971818923950e-01 4.1077265143394470e-01</leafValues></_>
    <_>
      <internalNodes>
        0 -1 42900 474535417 295359479 1369999383 -273944301 1333627839
        -628118609 -70270837 -269485365</internalNodes>
      <leafValues>
        -6.1869949102401733e-01 5.3093379735946655e-01</leafValues></_>
    <_>
      <internalNodes>
        0 -1 38320 -13379589 1896053398 134219042 -782798511 -234173566
        674373704 1360065692 -151324162</internalNodes>
      <leafValues>
        -5.7010829448699951e-01 5.5989301204681396e-01</leafValues></_>
    <_>
      <internalNodes>
        0 -1 48594 532229115 2128417243 352327742 1557580431 -1693348837
        -783806328 -160382821 -33665949</internalNodes>
      <leafValues>
        -7.4222737550735474e-01 4.1433864831924438e-01</leafValues></_>
    <_>
      <internalNodes>
        0 -1 36139 -1513233409 395538975 18546832 1440217544 78610986
        42598528 69673907 1341884923</internalNodes>
      <leafValues>
        -6.8473654985427856e-01 4.6413862705230713e-01</leafValues></_></weakClassifiers></stage9>
</opencv_storage>
