<?xml version="1.0"?>
<opencv_storage>
<stage11>
  <maxWeakCount>7</maxWeakCount>
  <stageThreshold>-1.4628175497055054e+00</stageThreshold>
  <weakClassifiers>
    <_>
      <internalNodes>
        0 -1 33905 -11210285 -9981037 -651886075 -3147335 -724239435
        -6832461 -203808501 -20049</internalNodes>
      <leafValues>
        -7.4798446893692017e-01 4.6722453832626343e-01</leafValues></_>
    <_>
      <internalNodes>
        0 -1 23785 -85988385 -808200741 -788399627 -137435300 -894174279
        -900494686 1965816804 -675939332</internalNodes>
      <leafValues>
        -6.6061025857925415e-01 4.4224220514297485e-01</leafValues></_>
    <_>
      <internalNodes>
        0 -1 45152 -11583489 -386525968 1350790911 1091918928 -117117185
        -1465980789 1700138607 1732713311</internalNodes>
      <leafValues>
        -7.8892695903778076e-01 3.6167332530021667e-01</leafValues></_>
    <_>
      <internalNodes>
        0 -1 57881 -245893633 -811409280 1416744988 1440628888
        -1329405537 696952962 1355021232 1566372324</internalNodes>
      <leafValues>
        -7.5828140974044800e-01 4.0404438972473145e-01</leafValues></_>
    <_>
      <internalNodes>
        0 -1 50877 -1048577 -545456130 -50332545 -664432 -536870929
        -1048577 -2000749323 -1612731137</internalNodes>
      <leafValues>
        -5.2339535951614380e-01 5.8087027072906494e-01</leafValues></_>
    <_>
      <internalNodes>
        0 -1 29039 1498349903 -178813593 286311574 -29190987 -1735806117
        1275368467 1610619147 -1054325</internalNodes>
      <leafValues>
        -7.3213994503021240e-01 4.4652056694030762e-01</leafValues></_>
    <_>
      <internalNodes>
        0 -1 161 -1843911000 -1088608225 -2080370348 -79099847
        -1349936453 -888602593 -822015061 -1110602865</internalNodes>
      <leafValues>
        -5.8772706985473633e-01 5.4140269756317139e-01</leafValues></_></weakClassifiers></stage11>
</opencv_storage>
