<?xml version="1.0"?>
<opencv_storage>
<stage14>
  <maxWeakCount>8</maxWeakCount>
  <stageThreshold>-1.4745807647705078e+00</stageThreshold>
  <weakClassifiers>
    <_>
      <internalNodes>
        0 -1 46946 822179807 1903654735 285823471 -41946849 -610014529
        -645685208 293855370 -11317</internalNodes>
      <leafValues>
        -7.0309627056121826e-01 5.0241917371749878e-01</leafValues></_>
    <_>
      <internalNodes>
        0 -1 56697 -75237410 1104389402 303155396 -1074570725
        -1784180726 -1474580478 -1719625598 -812648313</internalNodes>
      <leafValues>
        -6.5989363193511963e-01 4.4799309968948364e-01</leafValues></_>
    <_>
      <internalNodes>
        0 -1 52360 -35848225 -137228008 -2130674734 -736774884
        -207882309 -116750304 -281494850 -636958470</internalNodes>
      <leafValues>
        -6.4025384187698364e-01 4.5473113656044006e-01</leafValues></_>
    <_>
      <internalNodes>
        0 -1 38398 -536870913 469699039 112168457 494870013 -1758492030
        524158984 122654223 -538996769</internalNodes>
      <leafValues>
        -4.7679471969604492e-01 6.4822316169738770e-01</leafValues></_>
    <_>
      <internalNodes>
        0 -1 40992 -553760645 -546155024 986467935 -638647032 -827395430
        -1092126828 805296063 -620812533</internalNodes>
      <leafValues>
        -4.9971288442611694e-01 6.2215799093246460e-01</leafValues></_>
    <_>
      <internalNodes>
        0 -1 26141 -205261857 -1052584100 605618619 1404400060
        -158619336 -1984135168 -503256644 1598806572</internalNodes>
      <leafValues>
        -6.6711032390594482e-01 4.5834612846374512e-01</leafValues></_>
    <_>
      <internalNodes>
        0 -1 60392 -719848961 -259731194 1365787344 1687935070
        1245444213 -1445494781 1079239960 788130537</internalNodes>
      <leafValues>
        -5.9661525487899780e-01 5.0662952661514282e-01</leafValues></_>
    <_>
      <internalNodes>
        0 -1 36439 604427159 -1235537838 85007 1159037077 -1157318224
        -1427073024 -1121916173 -1654932981</internalNodes>
      <leafValues>
        -5.1487386226654053e-01 5.7066637277603149e-01</leafValues></_></weakClassifiers></stage14>
</opencv_storage>
