<?xml version="1.0"?>
<opencv_storage>
<stage10>
  <maxWeakCount>6</maxWeakCount>
  <stageThreshold>-1.6451756954193115e+00</stageThreshold>
  <weakClassifiers>
    <_>
      <internalNodes>
        0 -1 32816 -573179937 -107149901 -777926889 -707432185
        -650794057 -270040949 -1064177453 -774769777</internalNodes>
      <leafValues>
        -7.8429186344146729e-01 4.0715646743774414e-01</leafValues></_>
    <_>
      <internalNodes>
        0 -1 52035 -80481345 -583847934 269724315 2144737923 -1742631949
        1000571010 1065597883 -199704</internalNodes>
      <leafValues>
        -6.0856282711029053e-01 5.4541110992431641e-01</leafValues></_>
    <_>
      <internalNodes>
        0 -1 53975 -134218785 -1967497222 -883306274 -1081467736
        -997616661 -618790759 -794865414 -11022</internalNodes>
      <leafValues>
        -7.4435490369796753e-01 4.3354603648185730e-01</leafValues></_>
    <_>
      <internalNodes>
        0 -1 20838 -36176897 -963800191 1628697433 -20057128 -895896679
        1830518920 269392888 -606080004</internalNodes>
      <leafValues>
        -5.8562529087066650e-01 5.2625888586044312e-01</leafValues></_>
    <_>
      <internalNodes>
        0 -1 47097 -606078465 -61816679 -635857993 -61771293 -1719087173
        -290602992 -526781219 -1206816080</internalNodes>
      <leafValues>
        -6.3428980112075806e-01 5.1648896932601929e-01</leafValues></_>
    <_>
      <internalNodes>
        0 -1 45325 -1789141249 -680463120 134252697 -717754127
        -1576959713 -620757985 -2146502181 -1884312093</internalNodes>
      <leafValues>
        -5.4882621765136719e-01 5.5797511339187622e-01</leafValues></_></weakClassifiers></stage10>
</opencv_storage>
