<?xml version="1.0"?>
<opencv_storage>
<stage8>
  <maxWeakCount>6</maxWeakCount>
  <stageThreshold>-1.6411974430084229e+00</stageThreshold>
  <weakClassifiers>
    <_>
      <internalNodes>
        0 -1 42969 -128495531 -119582381 1058084349 -75514049 -99640613
        -78958161 -343220433 -3157221</internalNodes>
      <leafValues>
        -7.2371017932891846e-01 5.4633897542953491e-01</leafValues></_>
    <_>
      <internalNodes>
        0 -1 14739 -33554433 -745537596 -152043642 -268306560 -83886081
        -1209012870 -218431810 -10490353</internalNodes>
      <leafValues>
        -5.5504649877548218e-01 6.4339947700500488e-01</leafValues></_>
    <_>
      <internalNodes>
        0 -1 55419 -680528929 -808693334 -543793962 -673195810
        -798376965 1158269679 1078851775 1440735451</internalNodes>
      <leafValues>
        -6.0378497838973999e-01 5.3962355852127075e-01</leafValues></_>
    <_>
      <internalNodes>
        0 -1 34107 -227327785 215438335 16892427 132086527 -67566381
        -1433451781 1578830491 -64529</internalNodes>
      <leafValues>
        -6.9295960664749146e-01 4.6956831216812134e-01</leafValues></_>
    <_>
      <internalNodes>
        0 -1 44692 2010881011 -1088872041 289480722 477298961 273490203
        990708230 17382299 2147367934</internalNodes>
      <leafValues>
        -7.6542603969573975e-01 4.3470841646194458e-01</leafValues></_>
    <_>
      <internalNodes>
        0 -1 3713 -709580064 -2264302 536904452 -1085332855 -72768535
        -73299576 -1952900342 -99636278</internalNodes>
      <leafValues>
        -5.9319466352462769e-01 5.3720200061798096e-01</leafValues></_></weakClassifiers></stage8>
</opencv_storage>
