<?xml version="1.0"?>
<opencv_storage>
<stage4>
  <maxWeakCount>6</maxWeakCount>
  <stageThreshold>-1.8803356885910034e+00</stageThreshold>
  <weakClassifiers>
    <_>
      <internalNodes>
        0 -1 55536 -71305729 -2188290 -615550017 -337668 -1014784001
        -375675989 -1778386689 -538979845</internalNodes>
      <leafValues>
        -7.5777369737625122e-01 5.9059894084930420e-01</leafValues></_>
    <_>
      <internalNodes>
        0 -1 45207 -2623489 -673909504 -1311649293 -246294271 -24444945
        -25114373 -611587585 403820565</internalNodes>
      <leafValues>
        -7.3814433813095093e-01 5.2402514219284058e-01</leafValues></_>
    <_>
      <internalNodes>
        0 -1 29091 -136846593 -274015233 -1811857297 -336627749
        1079264460 1946112431 1526415807 -11777</internalNodes>
      <leafValues>
        -7.1826958656311035e-01 5.3027224540710449e-01</leafValues></_>
    <_>
      <internalNodes>
        0 -1 20069 -11730957 1737081330 -922094240 265678833 -876216325
        -811910193 -879009977 -998419597</internalNodes>
      <leafValues>
        -7.5491207838058472e-01 4.4845890998840332e-01</leafValues></_>
    <_>
      <internalNodes>
        0 -1 45224 -755827745 -7809800 1645564027 -1316694 -1878883633
        -21030897 -817823621 -1879195907</internalNodes>
      <leafValues>
        -6.2315809726715088e-01 5.7777357101440430e-01</leafValues></_>
    <_>
      <internalNodes>
        0 -1 50633 -1073691409 1381366739 1217970841 -573809189
        717264587 -11757685 -91690337 -28639745</internalNodes>
      <leafValues>
        -6.8425923585891724e-01 5.1099044084548950e-01</leafValues></_></weakClassifiers></stage4>
</opencv_storage>
