<?xml version="1.0"?>
<opencv_storage>
<stage12>
  <maxWeakCount>8</maxWeakCount>
  <stageThreshold>-1.9789377450942993e+00</stageThreshold>
  <weakClassifiers>
    <_>
      <internalNodes>
        0 -1 23595 -211299007 -67923837 286355923 -36202027 -10358207
        -552108015 -1412791845 -6319669</internalNodes>
      <leafValues>
        -6.6844493150711060e-01 5.7452881336212158e-01</leafValues></_>
    <_>
      <internalNodes>
        0 -1 56757 -537395777 -419630830 -1794903566 2011076656
        -24397889 93980810 1636422135 2012805876</internalNodes>
      <leafValues>
        -7.7835172414779663e-01 3.8580241799354553e-01</leafValues></_>
    <_>
      <internalNodes>
        0 -1 40873 -1241479496 1574801625 17760276 1541342301 705212094
        165218490 955752383 -8393957</internalNodes>
      <leafValues>
        -6.6326719522476196e-01 4.5482125878334045e-01</leafValues></_>
    <_>
      <internalNodes>
        0 -1 27857 -267191817 -43732063 -777877104 -162400255
        -1416979541 -91051889 -351540473 -368922171</internalNodes>
      <leafValues>
        -6.8360269069671631e-01 4.5493826270103455e-01</leafValues></_>
    <_>
      <internalNodes>
        0 -1 43183 1585317183 -1281794306 85525247 360661578 1973029851
        -1147717968 121309691 -1076894821</internalNodes>
      <leafValues>
        -5.8788144588470459e-01 5.3707903623580933e-01</leafValues></_>
    <_>
      <internalNodes>
        0 -1 55565 -95945729 69531068 857845055 -1081286472 -129257286
        -2138404734 1529807344 -545548064</internalNodes>
      <leafValues>
        -7.1268379688262939e-01 4.0293586254119873e-01</leafValues></_>
    <_>
      <internalNodes>
        0 -1 26538 -608571137 -1019051839 1880299897 1343867074
        -1458980248 -1958034808 -992225004 1421339646</internalNodes>
      <leafValues>
        -6.4655995368957520e-01 4.8454907536506653e-01</leafValues></_>
    <_>
      <internalNodes>
        0 -1 3462 -1895250726 788832288 76678365 -817692278 1609110973
        -1182676560 -1693217861 -806286345</internalNodes>
      <leafValues>
        -6.0663020610809326e-01 4.9220398068428040e-01</leafValues></_></weakClassifiers></stage12>
</opencv_storage>
